digraph Tree {
0 [label="feat_14 <= 2.5000\ngini = 0.384362852206\nsamples = 49502", shape="box"] ;
1 [label="feat_15 <= 1.5000\ngini = 0.29182978149\nsamples = 39165", shape="box"] ;
0 -> 1 ;
2 [label="feat_86 <= 0.5000\ngini = 0.194824969466\nsamples = 32521", shape="box"] ;
1 -> 2 ;
3 [label="feat_40 <= 3.5000\ngini = 0.094839115058\nsamples = 21819", shape="box"] ;
2 -> 3 ;
4 [label="feat_72 <= 4.5000\ngini = 0.0744640851165\nsamples = 21171", shape="box"] ;
3 -> 4 ;
5 [label="feat_64 <= 5.5000\ngini = 0.0654352926206\nsamples = 21025", shape="box"] ;
4 -> 5 ;
6 [label="feat_25 <= 3.5000\ngini = 0.0521364795918\nsamples = 20608", shape="box"] ;
5 -> 6 ;
7 [label="feat_72 <= 3.5000\ngini = 0.0418767560977\nsamples = 20284", shape="box"] ;
6 -> 7 ;
8 [label="gini = 0.0396\nsamples = 20202\nvalue = [ 19794.    408.]", shape="box"] ;
7 -> 8 ;
9 [label="gini = 0.4331\nsamples = 82\nvalue = [ 56.  26.]", shape="box"] ;
7 -> 9 ;
10 [label="feat_24 <= 2.5000\ngini = 0.463115378753\nsamples = 324", shape="box"] ;
6 -> 10 ;
11 [label="gini = 0.4999\nsamples = 237\nvalue = [ 120.  117.]", shape="box"] ;
10 -> 11 ;
12 [label="gini = 0.0227\nsamples = 87\nvalue = [ 86.   1.]", shape="box"] ;
10 -> 12 ;
13 [label="feat_78 <= 0.5000\ngini = 0.472945384699\nsamples = 417", shape="box"] ;
5 -> 13 ;
14 [label="feat_15 <= 0.5000\ngini = 0.496549112426\nsamples = 325", shape="box"] ;
13 -> 14 ;
15 [label="gini = 0.4564\nsamples = 210\nvalue = [ 136.   74.]", shape="box"] ;
14 -> 15 ;
16 [label="gini = 0.4537\nsamples = 115\nvalue = [ 40.  75.]", shape="box"] ;
14 -> 16 ;
17 [label="feat_9 <= 9.5000\ngini = 0.210538752363\nsamples = 92", shape="box"] ;
13 -> 17 ;
18 [label="gini = 0.0322\nsamples = 61\nvalue = [ 60.   1.]", shape="box"] ;
17 -> 18 ;
19 [label="gini = 0.4370\nsamples = 31\nvalue = [ 21.  10.]", shape="box"] ;
17 -> 19 ;
20 [label="feat_66 <= 0.5000\ngini = 0.385062863577\nsamples = 146", shape="box"] ;
4 -> 20 ;
21 [label="feat_24 <= 0.5000\ngini = 0.28466796875\nsamples = 128", shape="box"] ;
20 -> 21 ;
22 [label="feat_72 <= 7.5000\ngini = 0.498866213152\nsamples = 42", shape="box"] ;
21 -> 22 ;
23 [label="gini = 0.4824\nsamples = 32\nvalue = [ 19.  13.]", shape="box"] ;
22 -> 23 ;
24 [label="gini = 0.1800\nsamples = 10\nvalue = [ 1.  9.]", shape="box"] ;
22 -> 24 ;
25 [label="feat_27 <= 0.5000\ngini = 0.0454299621417\nsamples = 86", shape="box"] ;
21 -> 25 ;
26 [label="gini = 0.0000\nsamples = 83\nvalue = [  0.  83.]", shape="box"] ;
25 -> 26 ;
27 [label="gini = 0.4444\nsamples = 3\nvalue = [ 2.  1.]", shape="box"] ;
25 -> 27 ;
28 [label="feat_38 <= 0.5000\ngini = 0.197530864198\nsamples = 18", shape="box"] ;
20 -> 28 ;
29 [label="feat_54 <= 0.5000\ngini = 0.444444444444\nsamples = 3", shape="box"] ;
28 -> 29 ;
30 [label="gini = 0.0000\nsamples = 1\nvalue = [ 1.  0.]", shape="box"] ;
29 -> 30 ;
31 [label="gini = 0.0000\nsamples = 2\nvalue = [ 0.  2.]", shape="box"] ;
29 -> 31 ;
32 [label="gini = 0.0000\nsamples = 15\nvalue = [ 15.   0.]", shape="box"] ;
28 -> 32 ;
33 [label="feat_80 <= 0.5000\ngini = 0.485591944825\nsamples = 648", shape="box"] ;
3 -> 33 ;
34 [label="feat_60 <= 1.5000\ngini = 0.499982354671\nsamples = 505", shape="box"] ;
33 -> 34 ;
35 [label="feat_71 <= 0.5000\ngini = 0.497361019797\nsamples = 468", shape="box"] ;
34 -> 35 ;
36 [label="feat_36 <= 1.5000\ngini = 0.484677006596\nsamples = 417", shape="box"] ;
35 -> 36 ;
37 [label="gini = 0.4702\nsamples = 389\nvalue = [ 147.  242.]", shape="box"] ;
36 -> 37 ;
38 [label="gini = 0.1913\nsamples = 28\nvalue = [ 25.   3.]", shape="box"] ;
36 -> 38 ;
39 [label="feat_16 <= 7.5000\ngini = 0.207612456747\nsamples = 51", shape="box"] ;
35 -> 39 ;
40 [label="gini = 0.0849\nsamples = 45\nvalue = [ 43.   2.]", shape="box"] ;
39 -> 40 ;
41 [label="gini = 0.4444\nsamples = 6\nvalue = [ 2.  4.]", shape="box"] ;
39 -> 41 ;
42 [label="gini = 0.0000\nsamples = 37\nvalue = [ 37.   0.]", shape="box"] ;
34 -> 42 ;
43 [label="feat_40 <= 6.5000\ngini = 0.220059660619\nsamples = 143", shape="box"] ;
33 -> 43 ;
44 [label="feat_25 <= 2.5000\ngini = 0.060546875\nsamples = 96", shape="box"] ;
43 -> 44 ;
45 [label="gini = 0.0000\nsamples = 84\nvalue = [ 84.   0.]", shape="box"] ;
44 -> 45 ;
46 [label="feat_67 <= 0.5000\ngini = 0.375\nsamples = 12", shape="box"] ;
44 -> 46 ;
47 [label="gini = 0.3750\nsamples = 4\nvalue = [ 1.  3.]", shape="box"] ;
46 -> 47 ;
48 [label="gini = 0.0000\nsamples = 8\nvalue = [ 8.  0.]", shape="box"] ;
46 -> 48 ;
49 [label="feat_48 <= 1.5000\ngini = 0.434585785423\nsamples = 47", shape="box"] ;
43 -> 49 ;
50 [label="feat_16 <= 4.5000\ngini = 0.338933528123\nsamples = 37", shape="box"] ;
49 -> 50 ;
51 [label="gini = 0.0000\nsamples = 15\nvalue = [ 15.   0.]", shape="box"] ;
50 -> 51 ;
52 [label="gini = 0.4628\nsamples = 22\nvalue = [ 14.   8.]", shape="box"] ;
50 -> 52 ;
53 [label="feat_36 <= 0.5000\ngini = 0.42\nsamples = 10", shape="box"] ;
49 -> 53 ;
54 [label="gini = 0.0000\nsamples = 7\nvalue = [ 0.  7.]", shape="box"] ;
53 -> 54 ;
55 [label="gini = 0.0000\nsamples = 3\nvalue = [ 3.  0.]", shape="box"] ;
53 -> 55 ;
56 [label="feat_60 <= 0.5000\ngini = 0.354859241899\nsamples = 10702", shape="box"] ;
2 -> 56 ;
57 [label="feat_40 <= 1.5000\ngini = 0.406995956021\nsamples = 8208", shape="box"] ;
56 -> 57 ;
58 [label="feat_9 <= 4.5000\ngini = 0.353662469052\nsamples = 6013", shape="box"] ;
57 -> 58 ;
59 [label="feat_66 <= 0.5000\ngini = 0.312167032398\nsamples = 5079", shape="box"] ;
58 -> 59 ;
60 [label="feat_67 <= 5.5000\ngini = 0.373604142589\nsamples = 3592", shape="box"] ;
59 -> 60 ;
61 [label="gini = 0.4167\nsamples = 2899\nvalue = [ 2041.   858.]", shape="box"] ;
60 -> 61 ;
62 [label="gini = 0.0959\nsamples = 693\nvalue = [ 658.   35.]", shape="box"] ;
60 -> 62 ;
63 [label="feat_88 <= 3.5000\ngini = 0.113722650779\nsamples = 1487", shape="box"] ;
59 -> 63 ;
64 [label="gini = 0.0935\nsamples = 1404\nvalue = [ 1335.    69.]", shape="box"] ;
63 -> 64 ;
65 [label="gini = 0.3780\nsamples = 83\nvalue = [ 62.  21.]", shape="box"] ;
63 -> 65 ;
66 [label="feat_71 <= 0.5000\ngini = 0.488766054226\nsamples = 934", shape="box"] ;
58 -> 66 ;
67 [label="feat_64 <= 2.5000\ngini = 0.499998353102\nsamples = 551", shape="box"] ;
66 -> 67 ;
68 [label="gini = 0.3813\nsamples = 39\nvalue = [ 29.  10.]", shape="box"] ;
67 -> 68 ;
69 [label="gini = 0.4992\nsamples = 512\nvalue = [ 246.  266.]", shape="box"] ;
67 -> 69 ;
70 [label="feat_24 <= 0.5000\ngini = 0.432234182522\nsamples = 383", shape="box"] ;
66 -> 70 ;
71 [label="gini = 0.2975\nsamples = 11\nvalue = [ 2.  9.]", shape="box"] ;
70 -> 71 ;
72 [label="gini = 0.4209\nsamples = 372\nvalue = [ 260.  112.]", shape="box"] ;
70 -> 72 ;
73 [label="feat_62 <= 3.5000\ngini = 0.491451995372\nsamples = 2195", shape="box"] ;
57 -> 73 ;
74 [label="feat_48 <= 1.5000\ngini = 0.498828540549\nsamples = 1942", shape="box"] ;
73 -> 74 ;
75 [label="feat_80 <= 1.5000\ngini = 0.484000792369\nsamples = 1269", shape="box"] ;
74 -> 75 ;
76 [label="gini = 0.4888\nsamples = 1218\nvalue = [ 700.  518.]", shape="box"] ;
75 -> 76 ;
77 [label="gini = 0.1107\nsamples = 51\nvalue = [ 48.   3.]", shape="box"] ;
75 -> 77 ;
78 [label="feat_67 <= 5.5000\ngini = 0.480472656862\nsamples = 673", shape="box"] ;
74 -> 78 ;
79 [label="gini = 0.4291\nsamples = 539\nvalue = [ 168.  371.]", shape="box"] ;
78 -> 79 ;
80 [label="gini = 0.3636\nsamples = 134\nvalue = [ 102.   32.]", shape="box"] ;
78 -> 80 ;
81 [label="feat_13 <= 0.5000\ngini = 0.20903310472\nsamples = 253", shape="box"] ;
73 -> 81 ;
82 [label="feat_59 <= 0.5000\ngini = 0.336734693878\nsamples = 126", shape="box"] ;
81 -> 82 ;
83 [label="gini = 0.4268\nsamples = 81\nvalue = [ 56.  25.]", shape="box"] ;
82 -> 83 ;
84 [label="gini = 0.0849\nsamples = 45\nvalue = [ 43.   2.]", shape="box"] ;
82 -> 84 ;
85 [label="feat_65 <= 3.5000\ngini = 0.0461280922562\nsamples = 127", shape="box"] ;
81 -> 85 ;
86 [label="gini = 0.0312\nsamples = 126\nvalue = [ 124.    2.]", shape="box"] ;
85 -> 86 ;
87 [label="gini = 0.0000\nsamples = 1\nvalue = [ 0.  1.]", shape="box"] ;
85 -> 87 ;
88 [label="feat_66 <= 11.5000\ngini = 0.101684298933\nsamples = 2494", shape="box"] ;
56 -> 88 ;
89 [label="feat_9 <= 6.5000\ngini = 0.0887819829861\nsamples = 2470", shape="box"] ;
88 -> 89 ;
90 [label="feat_40 <= 12.5000\ngini = 0.069181874367\nsamples = 2397", shape="box"] ;
89 -> 90 ;
91 [label="feat_40 <= 1.5000\ngini = 0.0639236007773\nsamples = 2390", shape="box"] ;
90 -> 91 ;
92 [label="gini = 0.0376\nsamples = 1983\nvalue = [ 1945.    38.]", shape="box"] ;
91 -> 92 ;
93 [label="gini = 0.1812\nsamples = 407\nvalue = [ 366.   41.]", shape="box"] ;
91 -> 93 ;
94 [label="gini = 0.0000\nsamples = 7\nvalue = [ 0.  7.]", shape="box"] ;
90 -> 94 ;
95 [label="feat_71 <= 0.5000\ngini = 0.478889097392\nsamples = 73", shape="box"] ;
89 -> 95 ;
96 [label="feat_54 <= 2.5000\ngini = 0.495464852608\nsamples = 42", shape="box"] ;
95 -> 96 ;
97 [label="gini = 0.4614\nsamples = 36\nvalue = [ 13.  23.]", shape="box"] ;
96 -> 97 ;
98 [label="gini = 0.0000\nsamples = 6\nvalue = [ 6.  0.]", shape="box"] ;
96 -> 98 ;
99 [label="feat_36 <= 2.5000\ngini = 0.312174817898\nsamples = 31", shape="box"] ;
95 -> 99 ;
100 [label="gini = 0.2378\nsamples = 29\nvalue = [ 25.   4.]", shape="box"] ;
99 -> 100 ;
101 [label="gini = 0.0000\nsamples = 2\nvalue = [ 0.  2.]", shape="box"] ;
99 -> 101 ;
102 [label="feat_24 <= 8.5000\ngini = 0.329861111111\nsamples = 24", shape="box"] ;
88 -> 102 ;
103 [label="feat_66 <= 25.5000\ngini = 0.172335600907\nsamples = 21", shape="box"] ;
102 -> 103 ;
104 [label="gini = 0.0000\nsamples = 18\nvalue = [  0.  18.]", shape="box"] ;
103 -> 104 ;
105 [label="feat_9 <= 0.5000\ngini = 0.444444444444\nsamples = 3", shape="box"] ;
103 -> 105 ;
106 [label="gini = 0.0000\nsamples = 2\nvalue = [ 2.  0.]", shape="box"] ;
105 -> 106 ;
107 [label="gini = 0.0000\nsamples = 1\nvalue = [ 0.  1.]", shape="box"] ;
105 -> 107 ;
108 [label="gini = 0.0000\nsamples = 3\nvalue = [ 3.  0.]", shape="box"] ;
102 -> 108 ;
109 [label="feat_67 <= 0.5000\ngini = 0.499790497807\nsamples = 6644", shape="box"] ;
1 -> 109 ;
110 [label="feat_60 <= 0.5000\ngini = 0.454732994864\nsamples = 2363", shape="box"] ;
109 -> 110 ;
111 [label="feat_26 <= 0.5000\ngini = 0.475594916171\nsamples = 2064", shape="box"] ;
110 -> 111 ;
112 [label="feat_72 <= 0.5000\ngini = 0.487039051528\nsamples = 1795", shape="box"] ;
111 -> 112 ;
113 [label="feat_34 <= 3.5000\ngini = 0.416049970256\nsamples = 410", shape="box"] ;
112 -> 113 ;
114 [label="feat_44 <= 0.5000\ngini = 0.439508506616\nsamples = 368", shape="box"] ;
113 -> 114 ;
115 [label="gini = 0.4584\nsamples = 326\nvalue = [ 210.  116.]", shape="box"] ;
114 -> 115 ;
116 [label="gini = 0.1723\nsamples = 42\nvalue = [ 38.   4.]", shape="box"] ;
114 -> 116 ;
117 [label="feat_52 <= 0.5000\ngini = 0.046485260771\nsamples = 42", shape="box"] ;
113 -> 117 ;
118 [label="gini = 0.0000\nsamples = 41\nvalue = [ 41.   0.]", shape="box"] ;
117 -> 118 ;
119 [label="gini = 0.0000\nsamples = 1\nvalue = [ 0.  1.]", shape="box"] ;
117 -> 119 ;
120 [label="feat_50 <= 0.5000\ngini = 0.496183711504\nsamples = 1385", shape="box"] ;
112 -> 120 ;
121 [label="feat_27 <= 0.5000\ngini = 0.499490149001\nsamples = 1190", shape="box"] ;
120 -> 121 ;
122 [label="gini = 0.5000\nsamples = 1106\nvalue = [ 549.  557.]", shape="box"] ;
121 -> 122 ;
123 [label="gini = 0.3501\nsamples = 84\nvalue = [ 65.  19.]", shape="box"] ;
121 -> 123 ;
124 [label="feat_25 <= 6.0000\ngini = 0.409414858646\nsamples = 195", shape="box"] ;
120 -> 124 ;
125 [label="gini = 0.3927\nsamples = 190\nvalue = [ 139.   51.]", shape="box"] ;
124 -> 125 ;
126 [label="gini = 0.0000\nsamples = 5\nvalue = [ 0.  5.]", shape="box"] ;
124 -> 126 ;
127 [label="feat_33 <= 1.5000\ngini = 0.307292602369\nsamples = 269", shape="box"] ;
111 -> 127 ;
128 [label="feat_85 <= 6.5000\ngini = 0.195529419626\nsamples = 173", shape="box"] ;
127 -> 128 ;
129 [label="feat_40 <= 1.5000\ngini = 0.158790170132\nsamples = 161", shape="box"] ;
128 -> 129 ;
130 [label="gini = 0.0756\nsamples = 127\nvalue = [ 122.    5.]", shape="box"] ;
129 -> 130 ;
131 [label="gini = 0.3893\nsamples = 34\nvalue = [ 25.   9.]", shape="box"] ;
129 -> 131 ;
132 [label="feat_76 <= 0.5000\ngini = 0.486111111111\nsamples = 12", shape="box"] ;
128 -> 132 ;
133 [label="gini = 0.4082\nsamples = 7\nvalue = [ 2.  5.]", shape="box"] ;
132 -> 133 ;
134 [label="gini = 0.0000\nsamples = 5\nvalue = [ 5.  0.]", shape="box"] ;
132 -> 134 ;
135 [label="feat_85 <= 1.5000\ngini = 0.444444444444\nsamples = 96", shape="box"] ;
127 -> 135 ;
136 [label="feat_43 <= 0.5000\ngini = 0.499591836735\nsamples = 35", shape="box"] ;
135 -> 136 ;
137 [label="gini = 0.4709\nsamples = 29\nvalue = [ 11.  18.]", shape="box"] ;
136 -> 137 ;
138 [label="gini = 0.0000\nsamples = 6\nvalue = [ 6.  0.]", shape="box"] ;
136 -> 138 ;
139 [label="feat_42 <= 0.5000\ngini = 0.353668368718\nsamples = 61", shape="box"] ;
135 -> 139 ;
140 [label="gini = 0.4861\nsamples = 24\nvalue = [ 14.  10.]", shape="box"] ;
139 -> 140 ;
141 [label="gini = 0.1928\nsamples = 37\nvalue = [ 33.   4.]", shape="box"] ;
139 -> 141 ;
142 [label="feat_15 <= 23.5000\ngini = 0.136329571258\nsamples = 299", shape="box"] ;
110 -> 142 ;
143 [label="feat_38 <= 10.0000\ngini = 0.105628637097\nsamples = 286", shape="box"] ;
142 -> 143 ;
144 [label="feat_85 <= 26.0000\ngini = 0.0997229916898\nsamples = 285", shape="box"] ;
143 -> 144 ;
145 [label="feat_40 <= 5.5000\ngini = 0.0885459183673\nsamples = 280", shape="box"] ;
144 -> 145 ;
146 [label="gini = 0.0718\nsamples = 268\nvalue = [ 258.   10.]", shape="box"] ;
145 -> 146 ;
147 [label="gini = 0.3750\nsamples = 12\nvalue = [ 9.  3.]", shape="box"] ;
145 -> 147 ;
148 [label="feat_14 <= 0.5000\ngini = 0.48\nsamples = 5", shape="box"] ;
144 -> 148 ;
149 [label="gini = 0.0000\nsamples = 2\nvalue = [ 0.  2.]", shape="box"] ;
148 -> 149 ;
150 [label="gini = 0.0000\nsamples = 3\nvalue = [ 3.  0.]", shape="box"] ;
148 -> 150 ;
151 [label="gini = 0.0000\nsamples = 1\nvalue = [ 0.  1.]", shape="box"] ;
143 -> 151 ;
152 [label="feat_42 <= 0.5000\ngini = 0.497041420118\nsamples = 13", shape="box"] ;
142 -> 152 ;
153 [label="feat_40 <= 7.5000\ngini = 0.244897959184\nsamples = 7", shape="box"] ;
152 -> 153 ;
154 [label="gini = 0.0000\nsamples = 6\nvalue = [ 0.  6.]", shape="box"] ;
153 -> 154 ;
155 [label="gini = 0.0000\nsamples = 1\nvalue = [ 1.  0.]", shape="box"] ;
153 -> 155 ;
156 [label="gini = 0.0000\nsamples = 6\nvalue = [ 6.  0.]", shape="box"] ;
152 -> 156 ;
157 [label="feat_72 <= 2.5000\ngini = 0.480427496954\nsamples = 4281", shape="box"] ;
109 -> 157 ;
158 [label="feat_80 <= 0.5000\ngini = 0.49885738307\nsamples = 2573", shape="box"] ;
157 -> 158 ;
159 [label="feat_24 <= 2.5000\ngini = 0.498432\nsamples = 2250", shape="box"] ;
158 -> 159 ;
160 [label="feat_86 <= 0.5000\ngini = 0.465242240791\nsamples = 1263", shape="box"] ;
159 -> 160 ;
161 [label="feat_34 <= 5.5000\ngini = 0.409312110727\nsamples = 850", shape="box"] ;
160 -> 161 ;
162 [label="gini = 0.3869\nsamples = 820\nvalue = [ 215.  605.]", shape="box"] ;
161 -> 162 ;
163 [label="gini = 0.0644\nsamples = 30\nvalue = [ 29.   1.]", shape="box"] ;
161 -> 163 ;
164 [label="feat_15 <= 4.5000\ngini = 0.497534722019\nsamples = 413", shape="box"] ;
160 -> 164 ;
165 [label="gini = 0.4768\nsamples = 339\nvalue = [ 206.  133.]", shape="box"] ;
164 -> 165 ;
166 [label="gini = 0.3232\nsamples = 74\nvalue = [ 15.  59.]", shape="box"] ;
164 -> 166 ;
167 [label="feat_88 <= 0.5000\ngini = 0.478007409392\nsamples = 987", shape="box"] ;
159 -> 167 ;
168 [label="feat_42 <= 0.5000\ngini = 0.383502377232\nsamples = 549", shape="box"] ;
167 -> 168 ;
169 [label="gini = 0.4254\nsamples = 453\nvalue = [ 314.  139.]", shape="box"] ;
168 -> 169 ;
170 [label="gini = 0.0605\nsamples = 96\nvalue = [ 93.   3.]", shape="box"] ;
168 -> 170 ;
171 [label="feat_9 <= 0.5000\ngini = 0.491232459707\nsamples = 438", shape="box"] ;
167 -> 171 ;
172 [label="gini = 0.2923\nsamples = 45\nvalue = [ 37.   8.]", shape="box"] ;
171 -> 172 ;
173 [label="gini = 0.4755\nsamples = 393\nvalue = [ 153.  240.]", shape="box"] ;
171 -> 173 ;
174 [label="feat_64 <= 5.5000\ngini = 0.202858265679\nsamples = 323", shape="box"] ;
158 -> 174 ;
175 [label="feat_4 <= 0.5000\ngini = 0.133091815367\nsamples = 279", shape="box"] ;
174 -> 175 ;
176 [label="feat_38 <= 0.5000\ngini = 0.274119860253\nsamples = 122", shape="box"] ;
175 -> 176 ;
177 [label="gini = 0.4020\nsamples = 61\nvalue = [ 44.  17.]", shape="box"] ;
176 -> 177 ;
178 [label="gini = 0.0935\nsamples = 61\nvalue = [ 58.   3.]", shape="box"] ;
176 -> 178 ;
179 [label="gini = 0.0000\nsamples = 157\nvalue = [ 157.    0.]", shape="box"] ;
175 -> 179 ;
180 [label="feat_41 <= 0.5000\ngini = 0.474173553719\nsamples = 44", shape="box"] ;
174 -> 180 ;
181 [label="feat_24 <= 5.5000\ngini = 0.401234567901\nsamples = 36", shape="box"] ;
180 -> 181 ;
182 [label="gini = 0.4861\nsamples = 24\nvalue = [ 14.  10.]", shape="box"] ;
181 -> 182 ;
183 [label="gini = 0.0000\nsamples = 12\nvalue = [ 12.   0.]", shape="box"] ;
181 -> 183 ;
184 [label="feat_81 <= 1.0000\ngini = 0.21875\nsamples = 8", shape="box"] ;
180 -> 184 ;
185 [label="gini = 0.0000\nsamples = 7\nvalue = [ 0.  7.]", shape="box"] ;
184 -> 185 ;
186 [label="gini = 0.0000\nsamples = 1\nvalue = [ 1.  0.]", shape="box"] ;
184 -> 186 ;
187 [label="feat_78 <= 0.5000\ngini = 0.338735884034\nsamples = 1708", shape="box"] ;
157 -> 187 ;
188 [label="feat_85 <= 2.5000\ngini = 0.319855043292\nsamples = 1656", shape="box"] ;
187 -> 188 ;
189 [label="feat_9 <= 1.5000\ngini = 0.249207037778\nsamples = 1179", shape="box"] ;
188 -> 189 ;
190 [label="feat_67 <= 8.5000\ngini = 0.21014694709\nsamples = 1098", shape="box"] ;
189 -> 190 ;
191 [label="gini = 0.2002\nsamples = 1090\nvalue = [ 123.  967.]", shape="box"] ;
190 -> 191 ;
192 [label="gini = 0.0000\nsamples = 8\nvalue = [ 8.  0.]", shape="box"] ;
190 -> 192 ;
193 [label="feat_32 <= 10.5000\ngini = 0.499923792105\nsamples = 81", shape="box"] ;
189 -> 193 ;
194 [label="gini = 0.4954\nsamples = 73\nvalue = [ 33.  40.]", shape="box"] ;
193 -> 194 ;
195 [label="gini = 0.0000\nsamples = 8\nvalue = [ 8.  0.]", shape="box"] ;
193 -> 195 ;
196 [label="feat_43 <= 0.5000\ngini = 0.444444444444\nsamples = 477", shape="box"] ;
188 -> 196 ;
197 [label="feat_86 <= 0.5000\ngini = 0.407235627407\nsamples = 397", shape="box"] ;
196 -> 197 ;
198 [label="gini = 0.3191\nsamples = 266\nvalue = [  53.  213.]", shape="box"] ;
197 -> 198 ;
199 [label="gini = 0.4965\nsamples = 131\nvalue = [ 60.  71.]", shape="box"] ;
197 -> 199 ;
200 [label="feat_41 <= 0.5000\ngini = 0.48875\nsamples = 80", shape="box"] ;
196 -> 200 ;
201 [label="gini = 0.4994\nsamples = 58\nvalue = [ 28.  30.]", shape="box"] ;
200 -> 201 ;
202 [label="gini = 0.2975\nsamples = 22\nvalue = [ 18.   4.]", shape="box"] ;
200 -> 202 ;
203 [label="feat_58 <= 0.5000\ngini = 0.39349112426\nsamples = 52", shape="box"] ;
187 -> 203 ;
204 [label="feat_44 <= 0.5000\ngini = 0.497777777778\nsamples = 30", shape="box"] ;
203 -> 204 ;
205 [label="feat_15 <= 24.0000\ngini = 0.21875\nsamples = 8", shape="box"] ;
204 -> 205 ;
206 [label="gini = 0.0000\nsamples = 7\nvalue = [ 0.  7.]", shape="box"] ;
205 -> 206 ;
207 [label="gini = 0.0000\nsamples = 1\nvalue = [ 1.  0.]", shape="box"] ;
205 -> 207 ;
208 [label="feat_67 <= 2.5000\ngini = 0.433884297521\nsamples = 22", shape="box"] ;
204 -> 208 ;
209 [label="gini = 0.0000\nsamples = 8\nvalue = [ 8.  0.]", shape="box"] ;
208 -> 209 ;
210 [label="gini = 0.5000\nsamples = 14\nvalue = [ 7.  7.]", shape="box"] ;
208 -> 210 ;
211 [label="gini = 0.0000\nsamples = 22\nvalue = [ 22.   0.]", shape="box"] ;
203 -> 211 ;
212 [label="feat_20 <= 1.5000\ngini = 0.489957167458\nsamples = 10337", shape="box"] ;
0 -> 212 ;
213 [label="feat_48 <= 1.5000\ngini = 0.481374039943\nsamples = 9782", shape="box"] ;
212 -> 213 ;
214 [label="feat_60 <= 0.5000\ngini = 0.499676141775\nsamples = 5108", shape="box"] ;
213 -> 214 ;
215 [label="feat_43 <= 0.5000\ngini = 0.499461363922\nsamples = 4692", shape="box"] ;
214 -> 215 ;
216 [label="feat_30 <= 0.5000\ngini = 0.490669025019\nsamples = 3338", shape="box"] ;
215 -> 216 ;
217 [label="feat_33 <= 0.5000\ngini = 0.486291067049\nsamples = 3231", shape="box"] ;
216 -> 217 ;
218 [label="feat_26 <= 0.5000\ngini = 0.499983720017\nsamples = 1402", shape="box"] ;
217 -> 218 ;
219 [label="gini = 0.4995\nsamples = 1308\nvalue = [ 633.  675.]", shape="box"] ;
218 -> 219 ;
220 [label="gini = 0.3585\nsamples = 94\nvalue = [ 72.  22.]", shape="box"] ;
218 -> 220 ;
221 [label="feat_16 <= 0.5000\ngini = 0.455930080972\nsamples = 1829", shape="box"] ;
217 -> 221 ;
222 [label="gini = 0.4947\nsamples = 829\nvalue = [ 372.  457.]", shape="box"] ;
221 -> 222 ;
223 [label="gini = 0.3951\nsamples = 1000\nvalue = [ 271.  729.]", shape="box"] ;
221 -> 223 ;
224 [label="feat_72 <= 3.5000\ngini = 0.227443444842\nsamples = 107", shape="box"] ;
216 -> 224 ;
225 [label="feat_16 <= 6.5000\ngini = 0.132653061224\nsamples = 98", shape="box"] ;
224 -> 225 ;
226 [label="gini = 0.0815\nsamples = 94\nvalue = [ 90.   4.]", shape="box"] ;
225 -> 226 ;
227 [label="gini = 0.3750\nsamples = 4\nvalue = [ 1.  3.]", shape="box"] ;
225 -> 227 ;
228 [label="feat_89 <= 2.5000\ngini = 0.345679012346\nsamples = 9", shape="box"] ;
224 -> 228 ;
229 [label="gini = 0.0000\nsamples = 6\nvalue = [ 0.  6.]", shape="box"] ;
228 -> 229 ;
230 [label="gini = 0.4444\nsamples = 3\nvalue = [ 2.  1.]", shape="box"] ;
228 -> 230 ;
231 [label="feat_56 <= 2.5000\ngini = 0.475125946645\nsamples = 1354", shape="box"] ;
215 -> 231 ;
232 [label="feat_40 <= 6.5000\ngini = 0.48695874327\nsamples = 1226", shape="box"] ;
231 -> 232 ;
233 [label="feat_48 <= 0.5000\ngini = 0.464483591764\nsamples = 908", shape="box"] ;
232 -> 233 ;
234 [label="gini = 0.4444\nsamples = 708\nvalue = [ 472.  236.]", shape="box"] ;
233 -> 234 ;
235 [label="gini = 0.4996\nsamples = 200\nvalue = [ 103.   97.]", shape="box"] ;
233 -> 235 ;
236 [label="feat_92 <= 0.5000\ngini = 0.490427593845\nsamples = 318", shape="box"] ;
232 -> 236 ;
237 [label="gini = 0.5000\nsamples = 221\nvalue = [ 110.  111.]", shape="box"] ;
236 -> 237 ;
238 [label="gini = 0.4017\nsamples = 97\nvalue = [ 27.  70.]", shape="box"] ;
236 -> 238 ;
239 [label="feat_91 <= 0.5000\ngini = 0.169921875\nsamples = 128", shape="box"] ;
231 -> 239 ;
240 [label="feat_64 <= 6.5000\ngini = 0.121620728402\nsamples = 123", shape="box"] ;
239 -> 240 ;
241 [label="gini = 0.0943\nsamples = 121\nvalue = [ 115.    6.]", shape="box"] ;
240 -> 241 ;
242 [label="gini = 0.0000\nsamples = 2\nvalue = [ 0.  2.]", shape="box"] ;
240 -> 242 ;
243 [label="feat_88 <= 2.5000\ngini = 0.32\nsamples = 5", shape="box"] ;
239 -> 243 ;
244 [label="gini = 0.0000\nsamples = 1\nvalue = [ 1.  0.]", shape="box"] ;
243 -> 244 ;
245 [label="gini = 0.0000\nsamples = 4\nvalue = [ 0.  4.]", shape="box"] ;
243 -> 245 ;
246 [label="feat_26 <= 0.5000\ngini = 0.266965606509\nsamples = 416", shape="box"] ;
214 -> 246 ;
247 [label="feat_1 <= 4.5000\ngini = 0.366668906208\nsamples = 244", shape="box"] ;
246 -> 247 ;
248 [label="feat_40 <= 3.5000\ngini = 0.420814244065\nsamples = 196", shape="box"] ;
247 -> 248 ;
249 [label="feat_72 <= 9.5000\ngini = 0.32\nsamples = 125", shape="box"] ;
248 -> 249 ;
250 [label="gini = 0.2796\nsamples = 119\nvalue = [ 99.  20.]", shape="box"] ;
249 -> 250 ;
251 [label="gini = 0.2778\nsamples = 6\nvalue = [ 1.  5.]", shape="box"] ;
249 -> 251 ;
252 [label="feat_92 <= 0.5000\ngini = 0.499107319976\nsamples = 71", shape="box"] ;
248 -> 252 ;
253 [label="gini = 0.4617\nsamples = 47\nvalue = [ 30.  17.]", shape="box"] ;
252 -> 253 ;
254 [label="gini = 0.4132\nsamples = 24\nvalue = [  7.  17.]", shape="box"] ;
252 -> 254 ;
255 [label="gini = 0.0000\nsamples = 48\nvalue = [ 48.   0.]", shape="box"] ;
247 -> 255 ;
256 [label="feat_33 <= 4.5000\ngini = 0.078082747431\nsamples = 172", shape="box"] ;
246 -> 256 ;
257 [label="feat_66 <= 15.0000\ngini = 0.0574209586499\nsamples = 169", shape="box"] ;
256 -> 257 ;
258 [label="feat_40 <= 17.5000\ngini = 0.046485260771\nsamples = 168", shape="box"] ;
257 -> 258 ;
259 [label="gini = 0.0353\nsamples = 167\nvalue = [ 164.    3.]", shape="box"] ;
258 -> 259 ;
260 [label="gini = 0.0000\nsamples = 1\nvalue = [ 0.  1.]", shape="box"] ;
258 -> 260 ;
261 [label="gini = 0.0000\nsamples = 1\nvalue = [ 0.  1.]", shape="box"] ;
257 -> 261 ;
262 [label="feat_86 <= 1.5000\ngini = 0.444444444444\nsamples = 3", shape="box"] ;
256 -> 262 ;
263 [label="gini = 0.0000\nsamples = 2\nvalue = [ 0.  2.]", shape="box"] ;
262 -> 263 ;
264 [label="gini = 0.0000\nsamples = 1\nvalue = [ 1.  0.]", shape="box"] ;
262 -> 264 ;
265 [label="feat_32 <= 1.5000\ngini = 0.406795922564\nsamples = 4674", shape="box"] ;
213 -> 265 ;
266 [label="feat_29 <= 0.5000\ngini = 0.372219732846\nsamples = 4340", shape="box"] ;
265 -> 266 ;
267 [label="feat_88 <= 5.5000\ngini = 0.336590179341\nsamples = 3955", shape="box"] ;
266 -> 267 ;
268 [label="feat_26 <= 1.5000\ngini = 0.302008959844\nsamples = 3512", shape="box"] ;
267 -> 268 ;
269 [label="feat_67 <= 7.5000\ngini = 0.288646454155\nsamples = 3453", shape="box"] ;
268 -> 269 ;
270 [label="gini = 0.2713\nsamples = 3342\nvalue = [  541.  2801.]", shape="box"] ;
269 -> 270 ;
271 [label="gini = 0.4909\nsamples = 111\nvalue = [ 63.  48.]", shape="box"] ;
269 -> 271 ;
272 [label="feat_14 <= 16.5000\ngini = 0.324044814708\nsamples = 59", shape="box"] ;
268 -> 272 ;
273 [label="gini = 0.2257\nsamples = 54\nvalue = [ 47.   7.]", shape="box"] ;
272 -> 273 ;
274 [label="gini = 0.0000\nsamples = 5\nvalue = [ 0.  5.]", shape="box"] ;
272 -> 274 ;
275 [label="feat_48 <= 5.5000\ngini = 0.493373214641\nsamples = 443", shape="box"] ;
267 -> 275 ;
276 [label="feat_60 <= 0.5000\ngini = 0.498689559576\nsamples = 293", shape="box"] ;
275 -> 276 ;
277 [label="gini = 0.4939\nsamples = 272\nvalue = [ 151.  121.]", shape="box"] ;
276 -> 277 ;
278 [label="gini = 0.2449\nsamples = 21\nvalue = [  3.  18.]", shape="box"] ;
276 -> 278 ;
279 [label="feat_1 <= 0.5000\ngini = 0.4032\nsamples = 150", shape="box"] ;
275 -> 279 ;
280 [label="gini = 0.2963\nsamples = 94\nvalue = [ 17.  77.]", shape="box"] ;
279 -> 280 ;
281 [label="gini = 0.4943\nsamples = 56\nvalue = [ 25.  31.]", shape="box"] ;
279 -> 281 ;
282 [label="feat_55 <= 0.5000\ngini = 0.484857480182\nsamples = 385", shape="box"] ;
266 -> 282 ;
283 [label="feat_13 <= 0.5000\ngini = 0.416017199678\nsamples = 183", shape="box"] ;
282 -> 283 ;
284 [label="feat_59 <= 0.5000\ngini = 0.321607134814\nsamples = 149", shape="box"] ;
283 -> 284 ;
285 [label="gini = 0.2449\nsamples = 133\nvalue = [  19.  114.]", shape="box"] ;
284 -> 285 ;
286 [label="gini = 0.4297\nsamples = 16\nvalue = [ 11.   5.]", shape="box"] ;
284 -> 286 ;
287 [label="feat_60 <= 1.0000\ngini = 0.415224913495\nsamples = 34", shape="box"] ;
283 -> 287 ;
288 [label="gini = 0.4861\nsamples = 24\nvalue = [ 14.  10.]", shape="box"] ;
287 -> 288 ;
289 [label="gini = 0.0000\nsamples = 10\nvalue = [ 10.   0.]", shape="box"] ;
287 -> 289 ;
290 [label="feat_1 <= 3.5000\ngini = 0.252916380747\nsamples = 202", shape="box"] ;
282 -> 290 ;
291 [label="feat_1 <= 1.5000\ngini = 0.131211072664\nsamples = 170", shape="box"] ;
290 -> 291 ;
292 [label="gini = 0.4082\nsamples = 28\nvalue = [ 20.   8.]", shape="box"] ;
291 -> 292 ;
293 [label="gini = 0.0548\nsamples = 142\nvalue = [ 138.    4.]", shape="box"] ;
291 -> 293 ;
294 [label="feat_14 <= 6.5000\ngini = 0.4921875\nsamples = 32", shape="box"] ;
290 -> 294 ;
295 [label="gini = 0.4444\nsamples = 27\nvalue = [  9.  18.]", shape="box"] ;
294 -> 295 ;
296 [label="gini = 0.0000\nsamples = 5\nvalue = [ 5.  0.]", shape="box"] ;
294 -> 296 ;
297 [label="feat_88 <= 1.5000\ngini = 0.361163899745\nsamples = 334", shape="box"] ;
265 -> 297 ;
298 [label="feat_64 <= 6.5000\ngini = 0.236359566812\nsamples = 241", shape="box"] ;
297 -> 298 ;
299 [label="feat_40 <= 1.5000\ngini = 0.185002714714\nsamples = 223", shape="box"] ;
298 -> 299 ;
300 [label="feat_15 <= 21.5000\ngini = 0.0256367009614\nsamples = 154", shape="box"] ;
299 -> 300 ;
301 [label="gini = 0.0130\nsamples = 153\nvalue = [ 152.    1.]", shape="box"] ;
300 -> 301 ;
302 [label="gini = 0.0000\nsamples = 1\nvalue = [ 0.  1.]", shape="box"] ;
300 -> 302 ;
303 [label="feat_24 <= 2.5000\ngini = 0.423440453686\nsamples = 69", shape="box"] ;
299 -> 303 ;
304 [label="gini = 0.4983\nsamples = 34\nvalue = [ 16.  18.]", shape="box"] ;
303 -> 304 ;
305 [label="gini = 0.1567\nsamples = 35\nvalue = [ 32.   3.]", shape="box"] ;
303 -> 305 ;
306 [label="feat_85 <= 0.5000\ngini = 0.493827160494\nsamples = 18", shape="box"] ;
298 -> 306 ;
307 [label="feat_24 <= 1.5000\ngini = 0.408163265306\nsamples = 14", shape="box"] ;
306 -> 307 ;
308 [label="gini = 0.0000\nsamples = 2\nvalue = [ 2.  0.]", shape="box"] ;
307 -> 308 ;
309 [label="gini = 0.2778\nsamples = 12\nvalue = [  2.  10.]", shape="box"] ;
307 -> 309 ;
310 [label="gini = 0.0000\nsamples = 4\nvalue = [ 4.  0.]", shape="box"] ;
306 -> 310 ;
311 [label="feat_79 <= 0.5000\ngini = 0.499942189849\nsamples = 93", shape="box"] ;
297 -> 311 ;
312 [label="feat_86 <= 0.5000\ngini = 0.486111111111\nsamples = 72", shape="box"] ;
311 -> 312 ;
313 [label="feat_76 <= 0.5000\ngini = 0.124444444444\nsamples = 15", shape="box"] ;
312 -> 313 ;
314 [label="gini = 0.0000\nsamples = 14\nvalue = [  0.  14.]", shape="box"] ;
313 -> 314 ;
315 [label="gini = 0.0000\nsamples = 1\nvalue = [ 1.  0.]", shape="box"] ;
313 -> 315 ;
316 [label="feat_32 <= 2.5000\ngini = 0.499846106494\nsamples = 57", shape="box"] ;
312 -> 316 ;
317 [label="gini = 0.4567\nsamples = 34\nvalue = [ 12.  22.]", shape="box"] ;
316 -> 317 ;
318 [label="gini = 0.3856\nsamples = 23\nvalue = [ 17.   6.]", shape="box"] ;
316 -> 318 ;
319 [label="feat_10 <= 3.5000\ngini = 0.308390022676\nsamples = 21", shape="box"] ;
311 -> 319 ;
320 [label="feat_54 <= 4.5000\ngini = 0.104938271605\nsamples = 18", shape="box"] ;
319 -> 320 ;
321 [label="gini = 0.0000\nsamples = 16\nvalue = [ 16.   0.]", shape="box"] ;
320 -> 321 ;
322 [label="gini = 0.5000\nsamples = 2\nvalue = [ 1.  1.]", shape="box"] ;
320 -> 322 ;
323 [label="gini = 0.0000\nsamples = 3\nvalue = [ 0.  3.]", shape="box"] ;
319 -> 323 ;
324 [label="feat_40 <= 1.5000\ngini = 0.209554419284\nsamples = 555", shape="box"] ;
212 -> 324 ;
325 [label="feat_88 <= 18.5000\ngini = 0.056733850565\nsamples = 308", shape="box"] ;
324 -> 325 ;
326 [label="feat_66 <= 15.0000\ngini = 0.044848159097\nsamples = 305", shape="box"] ;
325 -> 326 ;
327 [label="feat_86 <= 4.5000\ngini = 0.038694598338\nsamples = 304", shape="box"] ;
326 -> 327 ;
328 [label="feat_85 <= 14.5000\ngini = 0.0148690541318\nsamples = 267", shape="box"] ;
327 -> 328 ;
329 [label="feat_43 <= 1.5000\ngini = 0.00766272189349\nsamples = 260", shape="box"] ;
328 -> 329 ;
330 [label="gini = 0.0000\nsamples = 234\nvalue = [ 234.    0.]", shape="box"] ;
329 -> 330 ;
331 [label="gini = 0.0740\nsamples = 26\nvalue = [ 25.   1.]", shape="box"] ;
329 -> 331 ;
332 [label="feat_61 <= 0.5000\ngini = 0.244897959184\nsamples = 7", shape="box"] ;
328 -> 332 ;
333 [label="gini = 0.0000\nsamples = 6\nvalue = [ 6.  0.]", shape="box"] ;
332 -> 333 ;
334 [label="gini = 0.0000\nsamples = 1\nvalue = [ 0.  1.]", shape="box"] ;
332 -> 334 ;
335 [label="feat_33 <= 4.5000\ngini = 0.192841490139\nsamples = 37", shape="box"] ;
327 -> 335 ;
336 [label="feat_10 <= 0.5000\ngini = 0.152777777778\nsamples = 36", shape="box"] ;
335 -> 336 ;
337 [label="gini = 0.3550\nsamples = 13\nvalue = [ 10.   3.]", shape="box"] ;
336 -> 337 ;
338 [label="gini = 0.0000\nsamples = 23\nvalue = [ 23.   0.]", shape="box"] ;
336 -> 338 ;
339 [label="gini = 0.0000\nsamples = 1\nvalue = [ 0.  1.]", shape="box"] ;
335 -> 339 ;
340 [label="gini = 0.0000\nsamples = 1\nvalue = [ 0.  1.]", shape="box"] ;
326 -> 340 ;
341 [label="feat_33 <= 1.0000\ngini = 0.444444444444\nsamples = 3", shape="box"] ;
325 -> 341 ;
342 [label="gini = 0.0000\nsamples = 2\nvalue = [ 0.  2.]", shape="box"] ;
341 -> 342 ;
343 [label="gini = 0.0000\nsamples = 1\nvalue = [ 1.  0.]", shape="box"] ;
341 -> 343 ;
344 [label="feat_17 <= 0.5000\ngini = 0.355029585799\nsamples = 247", shape="box"] ;
324 -> 344 ;
345 [label="feat_72 <= 4.5000\ngini = 0.465973534972\nsamples = 138", shape="box"] ;
344 -> 345 ;
346 [label="feat_66 <= 0.5000\ngini = 0.43722487445\nsamples = 127", shape="box"] ;
345 -> 346 ;
347 [label="feat_85 <= 2.5000\ngini = 0.496326530612\nsamples = 70", shape="box"] ;
346 -> 347 ;
348 [label="feat_89 <= 0.5000\ngini = 0.498790647675\nsamples = 61", shape="box"] ;
347 -> 348 ;
349 [label="gini = 0.4550\nsamples = 40\nvalue = [ 14.  26.]", shape="box"] ;
348 -> 349 ;
350 [label="gini = 0.4082\nsamples = 21\nvalue = [ 15.   6.]", shape="box"] ;
348 -> 350 ;
351 [label="gini = 0.0000\nsamples = 9\nvalue = [ 9.  0.]", shape="box"] ;
347 -> 351 ;
352 [label="feat_64 <= 7.0000\ngini = 0.265927977839\nsamples = 57", shape="box"] ;
346 -> 352 ;
353 [label="feat_40 <= 5.5000\ngini = 0.200783196867\nsamples = 53", shape="box"] ;
352 -> 353 ;
354 [label="gini = 0.0997\nsamples = 38\nvalue = [ 36.   2.]", shape="box"] ;
353 -> 354 ;
355 [label="gini = 0.3911\nsamples = 15\nvalue = [ 11.   4.]", shape="box"] ;
353 -> 355 ;
356 [label="feat_65 <= 0.5000\ngini = 0.375\nsamples = 4", shape="box"] ;
352 -> 356 ;
357 [label="gini = 0.0000\nsamples = 3\nvalue = [ 0.  3.]", shape="box"] ;
356 -> 357 ;
358 [label="gini = 0.0000\nsamples = 1\nvalue = [ 1.  0.]", shape="box"] ;
356 -> 358 ;
359 [label="feat_46 <= 2.5000\ngini = 0.165289256198\nsamples = 11", shape="box"] ;
345 -> 359 ;
360 [label="gini = 0.0000\nsamples = 10\nvalue = [  0.  10.]", shape="box"] ;
359 -> 360 ;
361 [label="gini = 0.0000\nsamples = 1\nvalue = [ 1.  0.]", shape="box"] ;
359 -> 361 ;
362 [label="feat_88 <= 14.5000\ngini = 0.104031647168\nsamples = 109", shape="box"] ;
344 -> 362 ;
363 [label="feat_64 <= 15.0000\ngini = 0.0726237095052\nsamples = 106", shape="box"] ;
362 -> 363 ;
364 [label="feat_5 <= 1.5000\ngini = 0.0199979593919\nsamples = 99", shape="box"] ;
363 -> 364 ;
365 [label="gini = 0.0000\nsamples = 98\nvalue = [ 98.   0.]", shape="box"] ;
364 -> 365 ;
366 [label="gini = 0.0000\nsamples = 1\nvalue = [ 0.  1.]", shape="box"] ;
364 -> 366 ;
367 [label="feat_32 <= 5.0000\ngini = 0.489795918367\nsamples = 7", shape="box"] ;
363 -> 367 ;
368 [label="gini = 0.0000\nsamples = 3\nvalue = [ 0.  3.]", shape="box"] ;
367 -> 368 ;
369 [label="gini = 0.0000\nsamples = 4\nvalue = [ 4.  0.]", shape="box"] ;
367 -> 369 ;
370 [label="feat_59 <= 0.5000\ngini = 0.444444444444\nsamples = 3", shape="box"] ;
362 -> 370 ;
371 [label="gini = 0.0000\nsamples = 2\nvalue = [ 0.  2.]", shape="box"] ;
370 -> 371 ;
372 [label="gini = 0.0000\nsamples = 1\nvalue = [ 1.  0.]", shape="box"] ;
370 -> 372 ;
}